{"online": {"W1": [[0.21884552989808423, -0.013829873232703896, 0.26950381355641584, 0.1399091072221264, -0.31942741650561784, 0.38155614126080967, 0.1922566956987203, 0.2610978105307068, -0.3207383609627777, -0.03352675230276879, -0.11141996549405954, 0.3396088544148345, 0.1070695406912153, 0.2540014330857892, -0.06485343676991479, -0.21817757600466417, 0.010797738795765519, -0.34486184879783044, 0.2743001489503136, 0.10342228806753691, 0.22266627243365472, -0.10653330127140384, 0.3602661156362364, 0.3442077064334689, 0.23770926607389933, -0.2464465581564127, -0.026447464424514122, -0.3624634249643869, -0.2769229185269065, 0.14364278883994017, 0.2164467394140605, 0.37842540347720593], [-0.13769568362980572, -0.06746675426822953, -0.028468699633121364, -0.2557916412709078, -0.29044259038837456, -0.01504461319804599, -0.22733240284671846, 0.15608526434029696, -0.05998747426334921, 0.27701975972581916, 0.13943882978020639, -0.1486993431460927, 0.2644639599283277, 0.2385187008941025, -0.10167144379853145, -0.17058718788388044, 0.11893260703287127, -0.2848098246623113, -0.23019074708521256, -0.3938622784636913, 0.22924671885779663, 0.13983619477239456, 0.16514378299843469, 0.2511117780409203, -0.027091664418374958, 0.043303763904418834, -0.28626031865512697, -0.3063086114386459, 0.12942821133038052, -0.020676067066612038, 0.05991648419759158, 0.21800451515741467], [0.10853540475271446, 0.0749192032548592, 0.03595915685477846, -0.1743370796526866, -0.3712222795622228, -0.050047878005032576, -0.23455978237980946, -0.03875789964569372, 0.24370583073861732, -0.21425014137982526, -0.35195224904580086, -0.17180110891028824, -0.16792327772147222, 0.12190597738444245, 0.031128084934448973, 0.21955840570323806, 0.10036680073172206, -0.07172654227539675, 0.2672723077407515, -0.25876802840801716, -0.3345171827577425, -0.32620456884284776, 0.14845868488415478, 0.01275930252824761, -0.24649230300497516, -0.0019342651884972039, -0.2763143220697895, 0.15613783163412298, -0.04556066963208326, -0.09674498400870747, -0.13314217753411745, 0.11347128156300439], [-0.10922903638424628, -0.33361425750257856, -0.30357812570954934, 0.3448149262255582, 0.34059970988116367, 0.16486839810744408, -0.18244722300225616, 0.3859855648407615, 0.21780182368062612, 0.17103692008218915, -0.048883532674788496, -0.18192126601061603, -0.32075593813894804, 0.29029968177044024, -0.04433221514923015, -0.23653761238600932, -0.1577091238506329, 0.06729465913607426, -0.2586047280806449, 0.2741263844775369, 0.19912684622149657, 0.18889509910407115, -0.06150547755216874, 0.1230777424218307, 0.057235482411034835, 0.09548378984141895, -0.3302501656874083, -0.0672277286060177, -0.36428811524394894, -0.01838695929907659, -0.1390430520892596, -0.28696414344184973], [-0.31501507190798494, 0.10134305448198552, -0.26707968700732, 0.32163255393485257, 0.07194352822119945, -0.11766541843755918, 0.0596222431113339, -0.35506666938784087, 0.3505363608086377, -0.012738966757014452, 0.20272008066407368, -0.33160788913648465, -0.013771994772474948, -0.011506895779984684, 0.3247087567269573, 0.05380301649218912, -0.04275107331149556, -0.18329042323209563, -0.11675147684493448, 0.012260270818934426, -0.031894652364639606, -0.3716644181239142, 0.24841459173746386, 0.34916702432283264, -0.2778885388166799, 0.02851000161054107, -0.3110724577237853, 0.13698872147553656, -0.17660505991618017, 0.1237929554641783, 0.19361517451263294, 0.22248671971151693], [-0.3113704217190402, 0.3668779781915876, -0.21909814444569753, -0.37483215536546116, 0.05253608027182126, -0.09705446652866215, 0.2480771865546078, 0.2701849903580494, -0.15573816404191695, 0.3773174130937735, -0.17930074223819434, 0.009126956416518677, -0.19329235267321648, 0.3366505191265921, -0.2750443973659408, -0.3627306408489011, -0.07474023778180724, 0.3961969156569553, 0.31711197019722903, 0.18930884449507632, 0.31018934649203334, 0.3272887527884226, 0.021446718910252408, -0.11053945677736764, 0.21752407881658206, 0.11218762195768815, -0.10040665570311336, -0.32224293799324927, 0.18972692036573566, -0.18907253806417973, 0.3519782333467598, -0.19369116955789412]], "b1": [0.0008738464121521285, 0.07714282716969204, -0.013509093996626495, -0.019763477447281033, 0.018215818593588173, 0.019670657229635846, -0.02324356117206772, 0.06266644571567173, 0.0023146899106012532, 0.03037608711790802, -0.03688937590447863, -0.0017555006243310518, 0.00025935950419318733, -0.00958030245858722, -0.034309890404914736, -0.006541546160259115, -0.04165649016090069, 0.006778589054009659, 0.014188369016308797, -0.01577810437248229, -8.514520845791491e-05, 0.02749173433997152, 0.02136182222021469, 0.07874629328561998, 0.013319907996348777, -0.04007053443164312, 0.0, 0.00013932036108479253, -0.00824196916781941, 0.006210533160881563, 0.005608485819211109, 0.034791182284109455], "W2": [[-0.23101264377609582, 0.20382102385464385, -0.21231912752259047, -0.1971661621128153, 0.0607183398735796, 0.22846050901109477, -0.18589504314917485, -0.11614652205876659, 0.16935025479213994, 0.2889230736449497, 0.0008273443500277029, -0.218067353720046, -0.2976520193994685, -0.16387649451165803, -0.2258237996570947, 0.1099278982789629, -0.23146651076506664, 0.003990372951755396, 0.11909597147469148, 0.04933395405111017, -0.18386157220456129, 0.1862567194017409, 0.1325287736520837, 0.1463194293144458, -0.225930063309931, -0.23040279967991661, 0.2616188560111327, -0.06277165253183231, -0.12186879616421074, -0.005815050629154889, 0.10005612110582672, 0.27922963439246684], [-0.13077444419626305, 0.25835822031670214, -0.29097886546869134, 0.026818971584520943, 0.08060851085240761, -0.24882587224752153, -0.2202437818770369, -0.04885282510445033, 0.2958031806230576, 0.050622703195653616, 0.28208306277923195, 0.18638223522451708, -0.019965557734581568, 0.1989917230595009, -0.30500210913949305, -0.23575540752569998, 0.19947796743469093, 0.20180878364371632, -0.16172693223373716, 0.013319037458481973, 0.058278084852638516, 0.22655353149593954, 0.08718538859719999, -0.05812774993287843, -0.07704294768621314, -0.0465850667831794, 0.08962431777589722, 0.22357736506781836, -0.02978702494857895, -0.1464273525273787, -0.1616131441743252, 0.14877796253969103], [0.19385798472310578, -0.23963363244511124, -0.2654274084971268, 0.05568286029167292, -0.2168571737113869, 0.1965192977619426, -0.11614581769615162, -0.21802880904563302, 0.25689213995311083, -0.20535333953117524, -0.13065852307235498, -0.21211760887863565, -0.23546328626248142, -0.2893768524369924, -0.2734647044946403, -0.197026013420388, -0.2734066353308354, 0.056477407736449145, 0.11098970147181142, -0.06610856091240991, -0.11148545634589335, 0.0029570498479125494, 0.23149917110235194, 0.21491247780189224, -0.2795632882310981, -0.19507147399897418, -0.16207651099140855, -0.1535139802609659, 0.043819389884799394, -0.048523420377195106, -0.2757613696988167, -0.07663183922103797], [0.0145085181815043, -0.23911987383529026, 0.20265958421054991, -0.2692272208979447, 0.2478555366742926, -0.24983371681426017, 0.21223391017258017, 0.2468192561998221, 0.29576478876450907, 0.17647464764440673, 0.17581521866881436, 0.08725283076730966, 0.17145962026234737, -0.2108674170048692, 0.012605930841181088, 0.012741845723434647, 0.21661349715445732, -0.014113751025562893, -0.07113264805530974, 0.083605207288351, -0.14307860425530303, -0.22588553603941225, -0.003128048348137018, -0.05488575678388099, -0.16369818298729885, -0.08099500791808942, -0.08525845123899149, -0.10834000930085037, -0.07410822322030076, 0.12392158700586789, -0.1254706270834025, 0.2650062163926126], [0.2549285560077994, -0.013121247686703622, -0.10686596178470824, 0.028713630115203278, 0.20960732127135828, 0.09340129401734468, 0.18878057865259448, 0.0200382198958875, 0.08983543397281697, -0.13211108724368903, 0.14719816416680018, -0.18223922415948485, 0.11973555403097606, 0.22146763558280172, -0.2260161519233141, 0.0651106787638018, -0.24936602406707864, 0.14670454712431397, -0.2546154040247831, 0.2671770009762714, -0.2221249905466169, 0.2766364644185575, 0.19063740840604895, 0.055669547634513865, 0.1732126646957707, 0.1807785390276467, 0.2731346796440227, -0.15107062113203454, 0.051333233976723104, -0.24751580102298149, 0.06599069401496237, -0.20734502290103074], [0.03976337449493765, 0.04734853680669467, -0.02174173769729737, 0.012715643164506935, 0.1515585456414389, 0.17250303910377146, -0.003754004906039143, 0.06146470441892567, 0.2644723310750825, -0.24112859279366522, -0.22892017779809024, -0.2524756365916285, 0.096897708835261, -0.031845117083826036, 0.1578395041006078, 0.11068353706369408, -0.10485324742763032, 0.25381195423755687, 0.1604014887694312, -0.1455177765270332, -0.08497873948716317, -0.11858083199478857, -0.1957501149872303, -0.21923397029831823, 0.26711491641343504, -0.03965984239902383, -0.07676817863561872, 0.13908176755554807, 0.031500296322307955, 0.28027042492227944, 0.17030360052649765, -0.01804613223517697], [-0.07571405037525691, 0.29536822254746953, 0.1332739871959141, 0.27690330398217616, -0.2340202120991633, 0.21049451755547097, 0.08395284454526467, -0.23116769154685057, 0.058221463344455424, 0.10824365224711693, -0.2932037322350192, -0.02797442097451791, 0.19926627652387624, -0.11856414108457974, -0.028619073098505237, -0.03585547557220064, -0.12299813565602284, 0.2637575906179922, 0.17219206991224617, -0.23985108394205132, 0.30045018070992174, 0.23151484588415272, -0.12422254334609749, 0.20295354335614102, -0.24101722851468724, 0.3049091770632736, 0.0992809473801578, 0.0906376273646809, -0.2516463958296971, 0.2458072977053325, -0.2891181784595089, -0.16169641660830486], [-0.21863229586757604, 0.16045549420288438, -0.18798688345145084, 0.2613757551057248, 0.07281475750266259, -0.2983717028938066, -0.2991983932942349, -0.2742319204284278, 0.08295326171005937, 0.16949157349041274, -0.14631115710162115, 0.21396834419445143, -0.27036969126160143, 0.210429371482127, 0.24472127869633165, 0.1626297477778632, 0.11264993281273185, 0.23952659998630937, -0.2829166681439239, -0.18883388819425106, -0.23650252547725506, -0.010748472984853534, 0.18460924475858492, 0.0679950008422623, 0.21522745235074434, -0.2151813707448241, 0.14037534578484628, -0.18921406477329114, -0.14803712920476417, 0.14611627808960004, 0.2856531213786225, 0.04920979039463091], [-0.2728440673697757, 0.07884207586511605, -0.2814678289231434, 0.23655745562993122, 0.11050083866560577, -0.2060796102762866, -0.24844405226448252, -0.19364190713929172, 0.29678733981662897, -0.03279983994403532, 0.18368575875509718, 0.08353270870576451, 0.04512833672706585, -0.1910033218000737, 0.2553810842242827, -0.11238544401104483, 0.04435027102201098, 0.137468087595067, 0.09134654453102961, 0.26600038489208516, -0.21566709422378852, 0.0029940039127832885, -0.039155906173613295, -0.024945405374015447, -0.2331079570494744, -0.2236804133135492, -0.13818208190612163, -0.12228053606683008, -0.042658348807921284, 0.08418306741597445, 0.08678873225150152, -0.06628958931456905], [-0.05588263115963428, -0.18773311090459763, 0.05125914773287518, -0.10201319039015806, -0.2992677945484653, -0.06149518124822418, -0.012979779043033254, -0.16770583252234675, 0.06917517094599504, 0.02171725663617752, 0.14223771703384305, 0.09059957240305089, 0.09394241292522458, -0.09174448581390214, 0.16157901312967554, 0.01968249624408565, -0.050849956045088233, 0.11329722122617973, -0.08634073472829337, 0.0030464389321101116, 0.13580310971246712, 0.22560920708019253, 0.2932398224959134, -0.008358458833007704, 0.012573642290514801, 0.1804653759741973, -0.11758818989475928, 0.20424460180765236, -0.012519607484039809, -0.22540353130387877, -0.2714318389992657, 0.19016156241306556], [-0.2721579572250909, -0.13557923222931834, -0.10164057331913788, -0.19971574322545532, -0.11443048463250036, 0.14714302014659714, -0.2971948491740764, 0.20045072293315552, 0.2213199721624486, -0.08051085633624291, -0.2096006921686077, 0.0617518862298867, -0.23288358182192068, -0.08105374350347368, 0.27963261069526624, 0.30206813025407087, 0.16592852181760395, -0.11206164718386528, 0.11489524439530087, 0.12565835342971138, -0.06900090977337943, 0.08509925594009218, -0.29623545968988485, -0.17856621291034191, 0.015363385195535761, -0.20571858866086593, -0.20577753936873064, 0.20515539742216019, 0.2983648701336838, 0.035571555443446534, 0.20716301420431213, 0.2983338032054289], [-0.21947679868052639, -0.03166734947646065, -0.06578550766006774, -0.2574665978554568, 0.15627484935499694, -0.04163633473449425, -0.018783340020081363, -0.21390510680942693, -0.19510181500489587, 0.24857537648716663, -0.2780727446553949, -0.16359389695958867, -0.12733713437550692, -0.004552628960560799, 0.05244274137071281, -0.003789708412911877, -0.25486407875351863, -0.1560080748145973, 0.2104503278211889, 0.08405272517885323, 0.09063595340951405, 0.10416087460468744, 0.1622769066140962, -0.2707948358878107, -0.08168534822021198, 0.023897563593915292, -0.09936268710100195, 0.210827555708005, -0.01050828486157233, 0.1658438098951334, 0.21539117415231668, 0.0027975895825366973], [0.25079850512417656, 0.05203546845248125, 0.2144429815935826, -0.09951926700845186, -0.0007631034503062251, 0.015664483204544388, -0.241899533525968, -0.06201893864415832, 0.25958099795668516, 0.0767900331525001, -0.1927480747682037, -0.09868036692039686, -0.1888538161341049, -0.28616947198911036, 0.25967222257711436, -0.03269887046209327, -0.1186634311695678, 0.06619378048730987, -0.30108948000139474, -0.13756570189189707, 0.12339070305483762, 0.08125743229852889, 0.30162484663969336, 0.07365086786584597, -0.013774782955434273, 0.1595103039082286, 0.24363285468234794, 0.13561598685459825, 0.2824206299930128, 0.177790499107876, 0.22447392572144753, -0.23599024026477064], [0.14229253146861978, -0.03527714788649808, 0.028703528278594292, 0.08849945853862501, 0.25092182603023494, 0.26378564859974757, -0.12596829282885694, 0.1444588365334219, 0.17090449907294272, -0.1272958245569719, -0.19735327092291297, -0.28111142804339206, 0.17090150517490307, 0.0647870979522889, 0.25418847250894305, -0.00950890232226336, 0.27855102754809347, -0.0002320640045596151, 0.17970917026849956, -0.2707634102234039, 0.023512697964347334, 0.1753882108848352, 0.3268521499523754, 0.17606852506634027, -0.28335675577376757, -0.08212575890488083, -0.2875402175112395, -0.2433218982460179, 0.10228090938457227, 0.17038108200378002, 0.1656782526497445, 0.1994514701290648], [0.146618778343591, 0.1841362069693653, -0.2762396431153375, -0.16254234358575284, 0.0733914025768444, 0.2175478884870717, -0.30342382755101244, 0.0091366013973217, 0.11025236098551286, -0.29048459611106775, -0.05765561372480481, 0.24227589595915122, 0.10515930471786399, -0.15700161735239404, 0.2138757733606979, -0.09277813385960289, 0.21564513953740994, -0.11973334815814993, 0.05535179498968993, -0.06384438845314193, -0.13793231380772936, 0.23601723282337875, -0.187688187976348, -0.2547029596131744, -0.09679958566068497, 0.13342433507559814, 0.18611318481074923, 0.30442700999898314, -0.12480945168284018, -0.05383309938909851, -0.22243341541257064, 0.04410848913211873], [0.3047042993722968, 0.1224679237004465, 0.05830571899345144, -0.0654663440497108, 0.2541598392562749, -0.001950945123676614, -0.2239036238654521, -0.08244318575807412, -0.2645296057375152, -0.1825424846240885, -0.29504589255572705, -0.028610091328705844, 0.08238874974768956, -0.09593127193400142, -0.04880170254064842, 0.2808798045162225, 0.15419542596149843, 0.025553574786712958, -0.13195867554781465, 0.24317020829228628, -0.1622192237586289, -0.10696402935069246, 0.2508732437320732, 0.018090740350379608, 0.14838883289789673, 0.055569610628778965, 0.09395788529739932, -0.12291486544990712, -0.158382160021772, -0.10866581425380133, -0.2109980886417679, 0.22887417873296165], [-0.13273360343016077, 0.038253705973500585, 0.17876512385800705, 0.16966579353652014, -0.03900513161567799, -0.01956863090261097, 0.30294171493831057, 0.10704776722365927, 0.19449650060716422, 0.24299249861287353, 0.18135329831234961, -0.19278749133812934, 0.038074178375266325, -0.23567777779302881, 0.08938334895360174, 0.28006895684907746, 0.0065117570981431, -0.035379759018408896, -0.28372360565825977, 0.27899817492801904, -0.24337377118232945, -0.2803059565228238, -0.14805460501679318, -0.2666045081991152, -0.0274845961615916, 0.009824509045967149, -0.11645208888526261, -0.274709611871037, -0.23813875314569832, -0.0670398573105193, -0.2690027512346345, 0.12170609627422115], [-0.17941398193833302, -0.12252363830826159, -0.06570135755373797, -0.04801931092788651, -0.30652959200402613, -0.23759838722332324, 0.22324006575491182, -0.3053951366201023, 0.008562985902892714, -0.007881542520048879, -0.10036931850126923, -0.042053439939406856, 0.17198751233551096, 0.21119587344970733, -0.14813813878103751, -0.10978656613017596, -0.15830728302493915, -0.007965065925616722, 0.11227930004400921, -0.1664034907169177, -0.10448917624719539, 0.26232170449937486, -0.2725820773451376, -0.02621790404462614, 0.12964910664123203, -0.2138799265521315, -0.277175673828439, -0.22161934180963272, 0.2554764486094132, -0.2995307086325517, -0.19184204522907813, -0.28982445831274906], [-0.23843978133710192, 0.07981060285556293, -0.1582204102748225, 0.02878166943416192, 0.049329887054127136, 0.1996556751458496, -0.30327894540039413, 0.2173849464802608, 0.07432754602804037, -0.21546802941545337, 0.183714146375365, 0.21769322131555424, -0.15047590957806997, 0.29281877892643055, -0.04390415507271645, 0.07631662432119854, 0.2940321432967308, -0.06729199752528475, 0.19371300598573576, -0.11942283266657074, 0.17846483134576385, 0.06542865653954348, -0.14751135494595533, -0.05873940228030921, -0.11167491076890418, -0.2595808780381721, -0.29179024685296095, -0.09537242609150075, -0.2933234005540324, -0.19041594719871924, 0.14023806684277396, 0.12748524423283197], [0.14607487544757353, -0.1176680703202055, 0.23654903992534598, 0.06749871776843346, -0.23644164739314288, -0.2205827914288053, 0.1208268923098209, -0.20026600233602143, 0.015524252784028808, 0.29415117377430433, -0.2993389158519846, -0.29603320417653656, 0.30245525069057283, 0.054640544103507056, -0.2315299746613403, 0.23653518076649419, 0.22954100597346677, 0.035343923573104286, 0.07359989993982159, -0.13935704923526313, -0.2766378763563879, 0.05098120579605869, -0.11487896621993332, 0.09510968765824877, 0.2060496144472617, -0.2952879258189162, 0.05811473719533994, -0.16506443431245846, 0.22411678157142176, -0.14829965873907305, 0.061093281652085815, 0.022544784713291736], [-0.06360891472852619, 0.09211457421212349, 0.13528013582994075, 0.05276564319141628, 0.14385836837125174, 0.2823413290672281, -0.04648354781446103, 0.009338757524217168, -0.27365920510532626, 0.16093785639030334, 0.02982378850318744, -0.0563618830680577, -0.24804354897123732, 0.2563432522478717, -0.07662423390464247, 0.09950280901801038, -0.2239048852420226, 0.31804200737065313, -0.19841027226761368, -0.18897579765267228, 0.21007660315021726, 0.23900572076610324, -0.14237544162788965, -0.027478160225704, 0.14313697873976958, 0.2275666828306274, -0.08055978339350013, 0.007831846415420077, 0.13833742449970285, 0.15198421954720717, 0.1617547912903756, 0.023504543940853898], [-0.2421294850601302, 0.23783937963871, 0.2222944851988833, 0.19237376512689564, -0.2479947193392137, -0.18172723976251973, 0.1509694424965313, -0.29201583271993814, 0.30604996058620665, -0.0787567982595403, 0.13806103830090033, 0.23733785146269337, -0.06430023524993113, -0.11299422233729361, 0.06719180672329128, 0.03984094174362935, -0.05844279804700979, 0.07438927293761217, 0.266006684941934, -0.019737074793834183, -0.18860534428592843, -0.08198988520468987, -0.056342670861487816, -0.2280452831839354, -0.2063306317514208, 0.11166006810819917, -0.09832517711700609, 0.2784826550625754, -0.1628886667863575, -0.24696382923448754, 0.1477049972606246, 0.2259023420463402], [-0.13588334809226332, -0.17010856048685571, -0.1933421365198986, -0.009385679425085147, -0.04024313193142534, -0.18011322039425912, -0.2779665287156721, -0.009606641545335432, 0.28504315340733216, 0.06563238088638966, 0.02891116183513605, -0.23840144286216203, -0.15125790427653918, -0.05492659902657926, 0.12484543846657911, 0.2534233852920333, 0.23759884017128813, 0.33400801190014573, 0.2976332642108998, 0.2591566258640254, -0.269985911872528, -0.22243178739568262, -0.06593455417261741, 0.020353021150685116, -0.24678687243903338, 0.20892238741111097, 0.05518670981809574, 0.021668919344605103, -0.20366458960491549, -0.11238163638398457, -0.20231664458666587, 0.20808864906482397], [0.05154786570228653, 0.15307661159048047, -0.12669445547221583, -0.09170970779450073, -0.08147976814911684, 0.1299266949332419, 0.16874742513188207, -0.1779753496277507, 0.28020757577491173, -0.25989682749375603, 0.27264484250868487, -0.24470669178807164, -0.14355488863438254, 0.27576545388520096, -0.229886696143415, -0.035717776593124966, -0.038947000932162266, -0.11637919172275482, 0.13037692696467257, 0.1981150299846567, 0.22082519671628406, -0.10737590042749977, 0.0715442876900746, -0.16508998445288095, -0.15620011056467548, -0.21107885435537824, 0.2513564932133822, 0.23226611266799266, 0.16773139786205585, 0.04829167442505327, -0.005353343711622959, 0.004833346637815486], [0.02238975700391329, -0.051100701018792036, -0.22655750473946315, -0.22163241984877544, 0.27457638173486515, -0.014129029279623558, 0.27873761864044644, -0.2060138203815323, 0.04575880792969207, -0.18348099405795673, -0.14643563341032903, -0.2877816222481031, -0.23321670241165476, 0.2537155792972097, -0.10862007823159592, 0.055996321573938856, -0.024872189431429045, -0.04817025538728708, 0.018756197520988633, -0.192221172405951, 0.2948236592618579, 0.1882172762590985, 0.1576888597368094, -0.021272880212600695, -0.21249730233282504, 0.2552088038238104, -0.09813060380514922, -0.2752026499041865, -0.10212865029254634, 0.17982542563940512, 0.0675348792990927, 0.1473286977472827], [0.17980555551523442, -0.17736512603689564, 0.25860218457574563, -0.03458608697650394, 0.08061760413128177, -0.3055823044690913, 0.30297595415166695, -0.1341546092880098, -0.26340544684775735, -0.02851035699422488, -0.22407473117343496, -0.21290553932717526, 0.08127983472742659, -0.061080939855820394, 0.2548068514760998, -0.11211700198481121, 0.13693721074130066, -0.016882047345957895, 0.09778652970887394, 0.06093833943940007, -0.017122396515590523, 0.2740430205313293, -0.08961342733570142, -0.2010665769682588, 0.10910247000685735, 0.21216309339049977, -0.2815370039202569, -0.031295507590714026, 0.23891153697547962, 0.15597580815838033, 0.29978832352469414, 0.014251514516769117], [0.09797696802316042, -0.1209556313375155, 0.27405846522804167, -0.08185246243872227, 0.14605738606745056, -0.05931426912459528, 0.03785620877478685, 0.13458876629454053, 0.005471028268852651, 0.2492884455480302, -0.049417850580891154, 0.09006271525118825, -0.09653290067720413, -0.05624232477779148, -0.036711661240718785, -0.22914546761637772, -0.250017165091554, 0.10256621219188156, 0.09523477622303617, 0.09976141848934184, -0.29408179156834535, -0.10621793243220798, -0.18505291987716974, 0.170332264115527, 0.22084011728890018, -0.15512595440756402, 0.10278619823323171, -0.22696800280571738, -0.1376903955573266, -0.22127802626926477, -0.1325659154351884, 0.10700384510535083], [0.2512728894216726, -0.1822899915582942, 0.025768041124500374, 0.12348958818017314, 0.27727346040982453, 0.06739800597947393, -0.1499657651317811, 0.07683923035133904, -0.10975747278888351, 0.29156790231179996, -0.0613441489227935, 0.11355082500794189, -0.2919519769721405, -0.061189323949039545, 0.2296895866781235, 0.06741731923745929, -0.034357323369988174, 0.2671268526672452, 0.21676327161046055, -0.10884535155780427, 0.02728021346441062, -0.006250454269066842, 0.0810866804951064, -0.10160124148187709, -0.15664180671979688, 0.2527088568984862, 0.2595687656285057, 0.2102173911049233, 0.2928180779361539, 0.1500367597292217, 0.16203255260188631, 0.16067882001723255], [-0.011875352273771511, -0.02764249136811175, -0.15910961595251877, 0.08929964721155978, -0.12916039614143085, -0.1486101934407382, 0.05264037603095845, -0.05511161247164461, -0.1708735038349344, 0.19227737289139848, 0.22221350545473872, -0.2034916545177997, -0.3015891178873131, -0.09874277048926036, 0.18123368909554463, 0.2076086352154565, -0.2217280593992689, 0.16989634683893579, -0.2352645746972712, -0.06743408487869212, 0.30457428228704186, -0.1883070948702471, -0.2099592054260265, -0.04784295476577974, 0.07328170672428946, 0.26533937763389687, 0.2944412357662154, -0.26386146775771835, -0.2217432588920072, 0.17827575324918563, -0.14062810567923892, 0.23475481465611248], [0.10009173299625572, -0.23571607639251912, 0.2035748968856225, -0.1995730145425165, -0.04816291664710195, 0.029237024138379863, 0.0005139833285343707, 0.11420923145408755, 0.09286538003126107, 0.2981291138782977, 0.30816149101624746, 0.010079284482085227, -0.24787719543412112, 0.14581088334073095, 0.2889245118699234, -0.10813011897326905, -0.023917464898445432, -0.044024990656696655, -0.274424606713265, 0.1039970542633887, -0.0899830099053833, 0.1758121308708045, 0.20700004133400704, 0.19637493321267177, -0.05103144575659674, -0.10933028355112999, 0.14880181520369332, 0.183570036614142, -0.0044320719559581825, 0.24539430354571687, -0.21761240919124267, 0.23166245546621206], [-0.24734073423299222, -0.21764645412444503, 0.019525269014256448, -0.2710368526600054, -0.2815073362355214, -0.32357692704862184, -0.03813317965016782, 0.16935237877079193, -0.26951478114304356, 0.07246002772801396, 0.2215836997842162, -0.20330712900530595, -0.21607212961144784, 0.25677525037275306, 0.17984460606884367, 0.026033292387477352, 0.18867849931484945, -0.21705472119781555, -0.06367411683566851, 0.13620666228070108, -0.1585076163678283, 0.15119444426053041, 0.04040262871513816, 0.14454913726617818, -0.021583774485379834, -0.08383078505878841, -0.18129826872805493, -0.1818494343491542, 0.14994772203027243, -0.21817653654406577, -0.2570111127837033, -0.20715680801920278], [-0.19880884753809858, 0.21007141425607984, -0.062222983660031074, 0.27639315003675247, -0.22843796943503372, 0.0699539914683805, -0.03139663655449387, -0.0641697721278096, 0.23062104014722723, 0.27346020066844606, 0.25237230963982177, -0.1884265826411976, -0.17096052237550413, 0.14574168148948097, -0.15149215563065332, 0.16196129633142597, 0.037391954337393465, 0.054029108013907805, 0.20465664086882251, 0.11436766583186589, -0.29489589658941784, -0.27420030000214235, 0.09791268492337427, -0.011268641844884231, -0.1468563067248388, -0.05190642336753419, 0.14253334485163166, 0.19795679007857298, 0.03922577161652401, -0.04177171960103772, -0.13564190039676652, 0.01707359000942186]], "b2": [-9.034780004008584e-05, -0.024983544046850766, -0.006785486948010496, 0.010695728288260927, -0.056304891929829404, -0.06104365142933147, 0.007444444908588581, 0.0018860600994882752, 0.08056140383288253, -0.06684777639112574, 0.09131789207828618, 0.0, 0.0021249634863034416, 0.1330967531916315, -0.07220074120684465, -0.00226502521340726, -0.027151477885742837, 0.14120132580764153, 0.0028913187286850744, -0.026941246450584325, -0.026251094291608632, -0.028357204687604082, 0.15386415761784433, -0.04022425139336561, 0.00036528221924331494, -0.005692615376595751, -0.026337604921214668, -0.011746802357819233, -0.021302343624238503, 0.07965616154798776, -0.011411918657543414, -0.05897241015855078], "W3": [[-0.15125550794166367, 0.052333460253151554, 0.14423606633185593, -0.35429484067777506], [-0.3994057874903286, -0.22744865052169086, 0.3366162961818965, 0.11944590799742605], [-0.2666967305556147, 0.3186851118015339, -0.024400341806992375, -0.019520998927861688], [0.37906945538033515, -0.3495558798123711, -0.1906284913574068, 0.07003199373047109], [-0.2280987626448087, 0.1482603068195778, -0.21543202968326824, -0.32728696299478005], [-0.23700196998761633, -0.059866338920245406, -0.2508188968583722, -0.29827271263571786], [0.2950391811350379, -0.14664506918785664, -0.11366752080989541, -0.36312019007963536], [-0.11585552829138741, -0.1917452930856892, 0.09201994500755734, -0.24054781465861508], [0.42853754228270785, 0.3916990184349064, -0.13941660326205213, -0.3205541438727097], [-0.3071454210626542, 0.1001707379477532, -0.30075224313527804, 0.28771895776944933], [0.24685373168613073, 0.28614990072842494, 0.11072194555560572, 0.40553524503010574], [-0.372179469947825, -0.08061681915981506, -0.14375510783916634, 0.36631751574748594], [0.0640722124061631, 0.2500038763965776, -0.26916528825053476, 0.39080314200997757], [0.08234251761194673, 0.02785305342747618, 0.4728335831783443, -0.09738161928152411], [-0.025760348784781992, 0.07808575936449161, -0.24352977380054588, -0.14608297431354633], [-0.20355094363739334, -0.30559591505542355, 0.3536230171266783, 0.07293859171337086], [-0.04342504369689824, -0.044876621507046015, 0.07182461294086288, 0.1087158519744782], [0.4363480977023603, 0.3759032495840062, -0.004195260314522249, -0.13940661797443066], [-0.011472101212130412, 0.07462247523860803, 0.06350819262813924, 0.12962161632595437], [0.06238201268670768, -0.13635476310899083, -0.09019790924616988, -0.09912857385744578], [-0.3272901780849986, -0.2712682303604616, 0.18316588604509654, -0.0905521558558629], [-0.16882112807479158, 0.062489036311970864, 0.22599656666994924, -0.19806381175452906], [0.3315575932403646, 0.369319166492577, 0.14205009964532717, 0.13794518592236815], [-0.3604826694823226, 0.3653384756307707, -0.08015395697766273, 0.346113227699237], [0.06475120566827024, -0.40447705700029307, -0.3767637542304968, 0.1473113379645551], [0.055996567659737775, -0.3843381782285838, 0.19981082075623224, 0.28752546370662846], [-0.000900181048591792, -0.025560183075255632, -0.3989581137715547, 0.23404851017493944], [-0.12673539205981724, 0.31634359998598, -0.08691934296046487, 0.0531358915238912], [-0.16472733529423708, -0.2738632597698142, 0.2333212784562113, -0.002783862364611811], [0.047839232761711974, 0.37605072753622226, 0.3950866956353916, 0.2903805764038947], [-0.2225660305684706, 0.0778259946888776, 0.31661706981239446, -0.1024997666725681], [-0.25783684766633214, 0.27398308568336605, 0.06775005598515657, 0.05257640335004121]], "b3": [0.3200738821790011, 0.0887064425843568, 0.2939048828740916, 0.0]}, "target": {"W1": [[0.21884552989808423, -0.013829873232703896, 0.26950381355641584, 0.1399091072221264, -0.31942741650561784, 0.38155614126080967, 0.1922566956987203, 0.2610978105307068, -0.3207383609627777, -0.03352675230276879, -0.11141996549405954, 0.3396088544148345, 0.1070695406912153, 0.2540014330857892, -0.06485343676991479, -0.21817757600466417, 0.010797738795765519, -0.34486184879783044, 0.2743001489503136, 0.10342228806753691, 0.22266627243365472, -0.10653330127140384, 0.3602661156362364, 0.3442077064334689, 0.23770926607389933, -0.2464465581564127, -0.026447464424514122, -0.3624634249643869, -0.2769229185269065, 0.14364278883994017, 0.2164467394140605, 0.37842540347720593], [-0.13769568362980572, -0.06746675426822953, -0.028468699633121364, -0.2557916412709078, -0.29044259038837456, -0.01504461319804599, -0.22733240284671846, 0.15608526434029696, -0.05998747426334921, 0.27701975972581916, 0.13943882978020639, -0.1486993431460927, 0.2644639599283277, 0.2385187008941025, -0.10167144379853145, -0.17058718788388044, 0.11893260703287127, -0.2848098246623113, -0.23019074708521256, -0.3938622784636913, 0.22924671885779663, 0.13983619477239456, 0.16514378299843469, 0.2511117780409203, -0.027091664418374958, 0.043303763904418834, -0.28626031865512697, -0.3063086114386459, 0.12942821133038052, -0.020676067066612038, 0.05991648419759158, 0.21800451515741467], [0.10853540475271446, 0.0749192032548592, 0.03595915685477846, -0.1743370796526866, -0.3712222795622228, -0.050047878005032576, -0.23455978237980946, -0.03875789964569372, 0.24370583073861732, -0.21425014137982526, -0.35195224904580086, -0.17180110891028824, -0.16792327772147222, 0.12190597738444245, 0.031128084934448973, 0.21955840570323806, 0.10036680073172206, -0.07172654227539675, 0.2672723077407515, -0.25876802840801716, -0.3345171827577425, -0.32620456884284776, 0.14845868488415478, 0.01275930252824761, -0.24649230300497516, -0.0019342651884972039, -0.2763143220697895, 0.15613783163412298, -0.04556066963208326, -0.09674498400870747, -0.13314217753411745, 0.11347128156300439], [-0.10922903638424628, -0.33361425750257856, -0.30357812570954934, 0.3448149262255582, 0.34059970988116367, 0.16486839810744408, -0.18244722300225616, 0.3859855648407615, 0.21780182368062612, 0.17103692008218915, -0.048883532674788496, -0.18192126601061603, -0.32075593813894804, 0.29029968177044024, -0.04433221514923015, -0.23653761238600932, -0.1577091238506329, 0.06729465913607426, -0.2586047280806449, 0.2741263844775369, 0.19912684622149657, 0.18889509910407115, -0.06150547755216874, 0.1230777424218307, 0.057235482411034835, 0.09548378984141895, -0.3302501656874083, -0.0672277286060177, -0.36428811524394894, -0.01838695929907659, -0.1390430520892596, -0.28696414344184973], [-0.31501507190798494, 0.10134305448198552, -0.26707968700732, 0.32163255393485257, 0.07194352822119945, -0.11766541843755918, 0.0596222431113339, -0.35506666938784087, 0.3505363608086377, -0.012738966757014452, 0.20272008066407368, -0.33160788913648465, -0.013771994772474948, -0.011506895779984684, 0.3247087567269573, 0.05380301649218912, -0.04275107331149556, -0.18329042323209563, -0.11675147684493448, 0.012260270818934426, -0.031894652364639606, -0.3716644181239142, 0.24841459173746386, 0.34916702432283264, -0.2778885388166799, 0.02851000161054107, -0.3110724577237853, 0.13698872147553656, -0.17660505991618017, 0.1237929554641783, 0.19361517451263294, 0.22248671971151693], [-0.3113704217190402, 0.3668779781915876, -0.21909814444569753, -0.37483215536546116, 0.05253608027182126, -0.09705446652866215, 0.2480771865546078, 0.2701849903580494, -0.15573816404191695, 0.3773174130937735, -0.17930074223819434, 0.009126956416518677, -0.19329235267321648, 0.3366505191265921, -0.2750443973659408, -0.3627306408489011, -0.07474023778180724, 0.3961969156569553, 0.31711197019722903, 0.18930884449507632, 0.31018934649203334, 0.3272887527884226, 0.021446718910252408, -0.11053945677736764, 0.21752407881658206, 0.11218762195768815, -0.10040665570311336, -0.32224293799324927, 0.18972692036573566, -0.18907253806417973, 0.3519782333467598, -0.19369116955789412]], "b1": [0.0008738464121521285, 0.07714282716969204, -0.013509093996626495, -0.019763477447281033, 0.018215818593588173, 0.019670657229635846, -0.02324356117206772, 0.06266644571567173, 0.0023146899106012532, 0.03037608711790802, -0.03688937590447863, -0.0017555006243310518, 0.00025935950419318733, -0.00958030245858722, -0.034309890404914736, -0.006541546160259115, -0.04165649016090069, 0.006778589054009659, 0.014188369016308797, -0.01577810437248229, -8.514520845791491e-05, 0.02749173433997152, 0.02136182222021469, 0.07874629328561998, 0.013319907996348777, -0.04007053443164312, 0.0, 0.00013932036108479253, -0.00824196916781941, 0.006210533160881563, 0.005608485819211109, 0.034791182284109455], "W2": [[-0.23101264377609582, 0.20382102385464385, -0.21231912752259047, -0.1971661621128153, 0.0607183398735796, 0.22846050901109477, -0.18589504314917485, -0.11614652205876659, 0.16935025479213994, 0.2889230736449497, 0.0008273443500277029, -0.218067353720046, -0.2976520193994685, -0.16387649451165803, -0.2258237996570947, 0.1099278982789629, -0.23146651076506664, 0.003990372951755396, 0.11909597147469148, 0.04933395405111017, -0.18386157220456129, 0.1862567194017409, 0.1325287736520837, 0.1463194293144458, -0.225930063309931, -0.23040279967991661, 0.2616188560111327, -0.06277165253183231, -0.12186879616421074, -0.005815050629154889, 0.10005612110582672, 0.27922963439246684], [-0.13077444419626305, 0.25835822031670214, -0.29097886546869134, 0.026818971584520943, 0.08060851085240761, -0.24882587224752153, -0.2202437818770369, -0.04885282510445033, 0.2958031806230576, 0.050622703195653616, 0.28208306277923195, 0.18638223522451708, -0.019965557734581568, 0.1989917230595009, -0.30500210913949305, -0.23575540752569998, 0.19947796743469093, 0.20180878364371632, -0.16172693223373716, 0.013319037458481973, 0.058278084852638516, 0.22655353149593954, 0.08718538859719999, -0.05812774993287843, -0.07704294768621314, -0.0465850667831794, 0.08962431777589722, 0.22357736506781836, -0.02978702494857895, -0.1464273525273787, -0.1616131441743252, 0.14877796253969103], [0.19385798472310578, -0.23963363244511124, -0.2654274084971268, 0.05568286029167292, -0.2168571737113869, 0.1965192977619426, -0.11614581769615162, -0.21802880904563302, 0.25689213995311083, -0.20535333953117524, -0.13065852307235498, -0.21211760887863565, -0.23546328626248142, -0.2893768524369924, -0.2734647044946403, -0.197026013420388, -0.2734066353308354, 0.056477407736449145, 0.11098970147181142, -0.06610856091240991, -0.11148545634589335, 0.0029570498479125494, 0.23149917110235194, 0.21491247780189224, -0.2795632882310981, -0.19507147399897418, -0.16207651099140855, -0.1535139802609659, 0.043819389884799394, -0.048523420377195106, -0.2757613696988167, -0.07663183922103797], [0.0145085181815043, -0.23911987383529026, 0.20265958421054991, -0.2692272208979447, 0.2478555366742926, -0.24983371681426017, 0.21223391017258017, 0.2468192561998221, 0.29576478876450907, 0.17647464764440673, 0.17581521866881436, 0.08725283076730966, 0.17145962026234737, -0.2108674170048692, 0.012605930841181088, 0.012741845723434647, 0.21661349715445732, -0.014113751025562893, -0.07113264805530974, 0.083605207288351, -0.14307860425530303, -0.22588553603941225, -0.003128048348137018, -0.05488575678388099, -0.16369818298729885, -0.08099500791808942, -0.08525845123899149, -0.10834000930085037, -0.07410822322030076, 0.12392158700586789, -0.1254706270834025, 0.2650062163926126], [0.2549285560077994, -0.013121247686703622, -0.10686596178470824, 0.028713630115203278, 0.20960732127135828, 0.09340129401734468, 0.18878057865259448, 0.0200382198958875, 0.08983543397281697, -0.13211108724368903, 0.14719816416680018, -0.18223922415948485, 0.11973555403097606, 0.22146763558280172, -0.2260161519233141, 0.0651106787638018, -0.24936602406707864, 0.14670454712431397, -0.2546154040247831, 0.2671770009762714, -0.2221249905466169, 0.2766364644185575, 0.19063740840604895, 0.055669547634513865, 0.1732126646957707, 0.1807785390276467, 0.2731346796440227, -0.15107062113203454, 0.051333233976723104, -0.24751580102298149, 0.06599069401496237, -0.20734502290103074], [0.03976337449493765, 0.04734853680669467, -0.02174173769729737, 0.012715643164506935, 0.1515585456414389, 0.17250303910377146, -0.003754004906039143, 0.06146470441892567, 0.2644723310750825, -0.24112859279366522, -0.22892017779809024, -0.2524756365916285, 0.096897708835261, -0.031845117083826036, 0.1578395041006078, 0.11068353706369408, -0.10485324742763032, 0.25381195423755687, 0.1604014887694312, -0.1455177765270332, -0.08497873948716317, -0.11858083199478857, -0.1957501149872303, -0.21923397029831823, 0.26711491641343504, -0.03965984239902383, -0.07676817863561872, 0.13908176755554807, 0.031500296322307955, 0.28027042492227944, 0.17030360052649765, -0.01804613223517697], [-0.07571405037525691, 0.29536822254746953, 0.1332739871959141, 0.27690330398217616, -0.2340202120991633, 0.21049451755547097, 0.08395284454526467, -0.23116769154685057, 0.058221463344455424, 0.10824365224711693, -0.2932037322350192, -0.02797442097451791, 0.19926627652387624, -0.11856414108457974, -0.028619073098505237, -0.03585547557220064, -0.12299813565602284, 0.2637575906179922, 0.17219206991224617, -0.23985108394205132, 0.30045018070992174, 0.23151484588415272, -0.12422254334609749, 0.20295354335614102, -0.24101722851468724, 0.3049091770632736, 0.0992809473801578, 0.0906376273646809, -0.2516463958296971, 0.2458072977053325, -0.2891181784595089, -0.16169641660830486], [-0.21863229586757604, 0.16045549420288438, -0.18798688345145084, 0.2613757551057248, 0.07281475750266259, -0.2983717028938066, -0.2991983932942349, -0.2742319204284278, 0.08295326171005937, 0.16949157349041274, -0.14631115710162115, 0.21396834419445143, -0.27036969126160143, 0.210429371482127, 0.24472127869633165, 0.1626297477778632, 0.11264993281273185, 0.23952659998630937, -0.2829166681439239, -0.18883388819425106, -0.23650252547725506, -0.010748472984853534, 0.18460924475858492, 0.0679950008422623, 0.21522745235074434, -0.2151813707448241, 0.14037534578484628, -0.18921406477329114, -0.14803712920476417, 0.14611627808960004, 0.2856531213786225, 0.04920979039463091], [-0.2728440673697757, 0.07884207586511605, -0.2814678289231434, 0.23655745562993122, 0.11050083866560577, -0.2060796102762866, -0.24844405226448252, -0.19364190713929172, 0.29678733981662897, -0.03279983994403532, 0.18368575875509718, 0.08353270870576451, 0.04512833672706585, -0.1910033218000737, 0.2553810842242827, -0.11238544401104483, 0.04435027102201098, 0.137468087595067, 0.09134654453102961, 0.26600038489208516, -0.21566709422378852, 0.0029940039127832885, -0.039155906173613295, -0.024945405374015447, -0.2331079570494744, -0.2236804133135492, -0.13818208190612163, -0.12228053606683008, -0.042658348807921284, 0.08418306741597445, 0.08678873225150152, -0.06628958931456905], [-0.05588263115963428, -0.18773311090459763, 0.05125914773287518, -0.10201319039015806, -0.2992677945484653, -0.06149518124822418, -0.012979779043033254, -0.16770583252234675, 0.06917517094599504, 0.02171725663617752, 0.14223771703384305, 0.09059957240305089, 0.09394241292522458, -0.09174448581390214, 0.16157901312967554, 0.01968249624408565, -0.050849956045088233, 0.11329722122617973, -0.08634073472829337, 0.0030464389321101116, 0.13580310971246712, 0.22560920708019253, 0.2932398224959134, -0.008358458833007704, 0.012573642290514801, 0.1804653759741973, -0.11758818989475928, 0.20424460180765236, -0.012519607484039809, -0.22540353130387877, -0.2714318389992657, 0.19016156241306556], [-0.2721579572250909, -0.13557923222931834, -0.10164057331913788, -0.19971574322545532, -0.11443048463250036, 0.14714302014659714, -0.2971948491740764, 0.20045072293315552, 0.2213199721624486, -0.08051085633624291, -0.2096006921686077, 0.0617518862298867, -0.23288358182192068, -0.08105374350347368, 0.27963261069526624, 0.30206813025407087, 0.16592852181760395, -0.11206164718386528, 0.11489524439530087, 0.12565835342971138, -0.06900090977337943, 0.08509925594009218, -0.29623545968988485, -0.17856621291034191, 0.015363385195535761, -0.20571858866086593, -0.20577753936873064, 0.20515539742216019, 0.2983648701336838, 0.035571555443446534, 0.20716301420431213, 0.2983338032054289], [-0.21947679868052639, -0.03166734947646065, -0.06578550766006774, -0.2574665978554568, 0.15627484935499694, -0.04163633473449425, -0.018783340020081363, -0.21390510680942693, -0.19510181500489587, 0.24857537648716663, -0.2780727446553949, -0.16359389695958867, -0.12733713437550692, -0.004552628960560799, 0.05244274137071281, -0.003789708412911877, -0.25486407875351863, -0.1560080748145973, 0.2104503278211889, 0.08405272517885323, 0.09063595340951405, 0.10416087460468744, 0.1622769066140962, -0.2707948358878107, -0.08168534822021198, 0.023897563593915292, -0.09936268710100195, 0.210827555708005, -0.01050828486157233, 0.1658438098951334, 0.21539117415231668, 0.0027975895825366973], [0.25079850512417656, 0.05203546845248125, 0.2144429815935826, -0.09951926700845186, -0.0007631034503062251, 0.015664483204544388, -0.241899533525968, -0.06201893864415832, 0.25958099795668516, 0.0767900331525001, -0.1927480747682037, -0.09868036692039686, -0.1888538161341049, -0.28616947198911036, 0.25967222257711436, -0.03269887046209327, -0.1186634311695678, 0.06619378048730987, -0.30108948000139474, -0.13756570189189707, 0.12339070305483762, 0.08125743229852889, 0.30162484663969336, 0.07365086786584597, -0.013774782955434273, 0.1595103039082286, 0.24363285468234794, 0.13561598685459825, 0.2824206299930128, 0.177790499107876, 0.22447392572144753, -0.23599024026477064], [0.14229253146861978, -0.03527714788649808, 0.028703528278594292, 0.08849945853862501, 0.25092182603023494, 0.26378564859974757, -0.12596829282885694, 0.1444588365334219, 0.17090449907294272, -0.1272958245569719, -0.19735327092291297, -0.28111142804339206, 0.17090150517490307, 0.0647870979522889, 0.25418847250894305, -0.00950890232226336, 0.27855102754809347, -0.0002320640045596151, 0.17970917026849956, -0.2707634102234039, 0.023512697964347334, 0.1753882108848352, 0.3268521499523754, 0.17606852506634027, -0.28335675577376757, -0.08212575890488083, -0.2875402175112395, -0.2433218982460179, 0.10228090938457227, 0.17038108200378002, 0.1656782526497445, 0.1994514701290648], [0.146618778343591, 0.1841362069693653, -0.2762396431153375, -0.16254234358575284, 0.0733914025768444, 0.2175478884870717, -0.30342382755101244, 0.0091366013973217, 0.11025236098551286, -0.29048459611106775, -0.05765561372480481, 0.24227589595915122, 0.10515930471786399, -0.15700161735239404, 0.2138757733606979, -0.09277813385960289, 0.21564513953740994, -0.11973334815814993, 0.05535179498968993, -0.06384438845314193, -0.13793231380772936, 0.23601723282337875, -0.187688187976348, -0.2547029596131744, -0.09679958566068497, 0.13342433507559814, 0.18611318481074923, 0.30442700999898314, -0.12480945168284018, -0.05383309938909851, -0.22243341541257064, 0.04410848913211873], [0.3047042993722968, 0.1224679237004465, 0.05830571899345144, -0.0654663440497108, 0.2541598392562749, -0.001950945123676614, -0.2239036238654521, -0.08244318575807412, -0.2645296057375152, -0.1825424846240885, -0.29504589255572705, -0.028610091328705844, 0.08238874974768956, -0.09593127193400142, -0.04880170254064842, 0.2808798045162225, 0.15419542596149843, 0.025553574786712958, -0.13195867554781465, 0.24317020829228628, -0.1622192237586289, -0.10696402935069246, 0.2508732437320732, 0.018090740350379608, 0.14838883289789673, 0.055569610628778965, 0.09395788529739932, -0.12291486544990712, -0.158382160021772, -0.10866581425380133, -0.2109980886417679, 0.22887417873296165], [-0.13273360343016077, 0.038253705973500585, 0.17876512385800705, 0.16966579353652014, -0.03900513161567799, -0.01956863090261097, 0.30294171493831057, 0.10704776722365927, 0.19449650060716422, 0.24299249861287353, 0.18135329831234961, -0.19278749133812934, 0.038074178375266325, -0.23567777779302881, 0.08938334895360174, 0.28006895684907746, 0.0065117570981431, -0.035379759018408896, -0.28372360565825977, 0.27899817492801904, -0.24337377118232945, -0.2803059565228238, -0.14805460501679318, -0.2666045081991152, -0.0274845961615916, 0.009824509045967149, -0.11645208888526261, -0.274709611871037, -0.23813875314569832, -0.0670398573105193, -0.2690027512346345, 0.12170609627422115], [-0.17941398193833302, -0.12252363830826159, -0.06570135755373797, -0.04801931092788651, -0.30652959200402613, -0.23759838722332324, 0.22324006575491182, -0.3053951366201023, 0.008562985902892714, -0.007881542520048879, -0.10036931850126923, -0.042053439939406856, 0.17198751233551096, 0.21119587344970733, -0.14813813878103751, -0.10978656613017596, -0.15830728302493915, -0.007965065925616722, 0.11227930004400921, -0.1664034907169177, -0.10448917624719539, 0.26232170449937486, -0.2725820773451376, -0.02621790404462614, 0.12964910664123203, -0.2138799265521315, -0.277175673828439, -0.22161934180963272, 0.2554764486094132, -0.2995307086325517, -0.19184204522907813, -0.28982445831274906], [-0.23843978133710192, 0.07981060285556293, -0.1582204102748225, 0.02878166943416192, 0.049329887054127136, 0.1996556751458496, -0.30327894540039413, 0.2173849464802608, 0.07432754602804037, -0.21546802941545337, 0.183714146375365, 0.21769322131555424, -0.15047590957806997, 0.29281877892643055, -0.04390415507271645, 0.07631662432119854, 0.2940321432967308, -0.06729199752528475, 0.19371300598573576, -0.11942283266657074, 0.17846483134576385, 0.06542865653954348, -0.14751135494595533, -0.05873940228030921, -0.11167491076890418, -0.2595808780381721, -0.29179024685296095, -0.09537242609150075, -0.2933234005540324, -0.19041594719871924, 0.14023806684277396, 0.12748524423283197], [0.14607487544757353, -0.1176680703202055, 0.23654903992534598, 0.06749871776843346, -0.23644164739314288, -0.2205827914288053, 0.1208268923098209, -0.20026600233602143, 0.015524252784028808, 0.29415117377430433, -0.2993389158519846, -0.29603320417653656, 0.30245525069057283, 0.054640544103507056, -0.2315299746613403, 0.23653518076649419, 0.22954100597346677, 0.035343923573104286, 0.07359989993982159, -0.13935704923526313, -0.2766378763563879, 0.05098120579605869, -0.11487896621993332, 0.09510968765824877, 0.2060496144472617, -0.2952879258189162, 0.05811473719533994, -0.16506443431245846, 0.22411678157142176, -0.14829965873907305, 0.061093281652085815, 0.022544784713291736], [-0.06360891472852619, 0.09211457421212349, 0.13528013582994075, 0.05276564319141628, 0.14385836837125174, 0.2823413290672281, -0.04648354781446103, 0.009338757524217168, -0.27365920510532626, 0.16093785639030334, 0.02982378850318744, -0.0563618830680577, -0.24804354897123732, 0.2563432522478717, -0.07662423390464247, 0.09950280901801038, -0.2239048852420226, 0.31804200737065313, -0.19841027226761368, -0.18897579765267228, 0.21007660315021726, 0.23900572076610324, -0.14237544162788965, -0.027478160225704, 0.14313697873976958, 0.2275666828306274, -0.08055978339350013, 0.007831846415420077, 0.13833742449970285, 0.15198421954720717, 0.1617547912903756, 0.023504543940853898], [-0.2421294850601302, 0.23783937963871, 0.2222944851988833, 0.19237376512689564, -0.2479947193392137, -0.18172723976251973, 0.1509694424965313, -0.29201583271993814, 0.30604996058620665, -0.0787567982595403, 0.13806103830090033, 0.23733785146269337, -0.06430023524993113, -0.11299422233729361, 0.06719180672329128, 0.03984094174362935, -0.05844279804700979, 0.07438927293761217, 0.266006684941934, -0.019737074793834183, -0.18860534428592843, -0.08198988520468987, -0.056342670861487816, -0.2280452831839354, -0.2063306317514208, 0.11166006810819917, -0.09832517711700609, 0.2784826550625754, -0.1628886667863575, -0.24696382923448754, 0.1477049972606246, 0.2259023420463402], [-0.13588334809226332, -0.17010856048685571, -0.1933421365198986, -0.009385679425085147, -0.04024313193142534, -0.18011322039425912, -0.2779665287156721, -0.009606641545335432, 0.28504315340733216, 0.06563238088638966, 0.02891116183513605, -0.23840144286216203, -0.15125790427653918, -0.05492659902657926, 0.12484543846657911, 0.2534233852920333, 0.23759884017128813, 0.33400801190014573, 0.2976332642108998, 0.2591566258640254, -0.269985911872528, -0.22243178739568262, -0.06593455417261741, 0.020353021150685116, -0.24678687243903338, 0.20892238741111097, 0.05518670981809574, 0.021668919344605103, -0.20366458960491549, -0.11238163638398457, -0.20231664458666587, 0.20808864906482397], [0.05154786570228653, 0.15307661159048047, -0.12669445547221583, -0.09170970779450073, -0.08147976814911684, 0.1299266949332419, 0.16874742513188207, -0.1779753496277507, 0.28020757577491173, -0.25989682749375603, 0.27264484250868487, -0.24470669178807164, -0.14355488863438254, 0.27576545388520096, -0.229886696143415, -0.035717776593124966, -0.038947000932162266, -0.11637919172275482, 0.13037692696467257, 0.1981150299846567, 0.22082519671628406, -0.10737590042749977, 0.0715442876900746, -0.16508998445288095, -0.15620011056467548, -0.21107885435537824, 0.2513564932133822, 0.23226611266799266, 0.16773139786205585, 0.04829167442505327, -0.005353343711622959, 0.004833346637815486], [0.02238975700391329, -0.051100701018792036, -0.22655750473946315, -0.22163241984877544, 0.27457638173486515, -0.014129029279623558, 0.27873761864044644, -0.2060138203815323, 0.04575880792969207, -0.18348099405795673, -0.14643563341032903, -0.2877816222481031, -0.23321670241165476, 0.2537155792972097, -0.10862007823159592, 0.055996321573938856, -0.024872189431429045, -0.04817025538728708, 0.018756197520988633, -0.192221172405951, 0.2948236592618579, 0.1882172762590985, 0.1576888597368094, -0.021272880212600695, -0.21249730233282504, 0.2552088038238104, -0.09813060380514922, -0.2752026499041865, -0.10212865029254634, 0.17982542563940512, 0.0675348792990927, 0.1473286977472827], [0.17980555551523442, -0.17736512603689564, 0.25860218457574563, -0.03458608697650394, 0.08061760413128177, -0.3055823044690913, 0.30297595415166695, -0.1341546092880098, -0.26340544684775735, -0.02851035699422488, -0.22407473117343496, -0.21290553932717526, 0.08127983472742659, -0.061080939855820394, 0.2548068514760998, -0.11211700198481121, 0.13693721074130066, -0.016882047345957895, 0.09778652970887394, 0.06093833943940007, -0.017122396515590523, 0.2740430205313293, -0.08961342733570142, -0.2010665769682588, 0.10910247000685735, 0.21216309339049977, -0.2815370039202569, -0.031295507590714026, 0.23891153697547962, 0.15597580815838033, 0.29978832352469414, 0.014251514516769117], [0.09797696802316042, -0.1209556313375155, 0.27405846522804167, -0.08185246243872227, 0.14605738606745056, -0.05931426912459528, 0.03785620877478685, 0.13458876629454053, 0.005471028268852651, 0.2492884455480302, -0.049417850580891154, 0.09006271525118825, -0.09653290067720413, -0.05624232477779148, -0.036711661240718785, -0.22914546761637772, -0.250017165091554, 0.10256621219188156, 0.09523477622303617, 0.09976141848934184, -0.29408179156834535, -0.10621793243220798, -0.18505291987716974, 0.170332264115527, 0.22084011728890018, -0.15512595440756402, 0.10278619823323171, -0.22696800280571738, -0.1376903955573266, -0.22127802626926477, -0.1325659154351884, 0.10700384510535083], [0.2512728894216726, -0.1822899915582942, 0.025768041124500374, 0.12348958818017314, 0.27727346040982453, 0.06739800597947393, -0.1499657651317811, 0.07683923035133904, -0.10975747278888351, 0.29156790231179996, -0.0613441489227935, 0.11355082500794189, -0.2919519769721405, -0.061189323949039545, 0.2296895866781235, 0.06741731923745929, -0.034357323369988174, 0.2671268526672452, 0.21676327161046055, -0.10884535155780427, 0.02728021346441062, -0.006250454269066842, 0.0810866804951064, -0.10160124148187709, -0.15664180671979688, 0.2527088568984862, 0.2595687656285057, 0.2102173911049233, 0.2928180779361539, 0.1500367597292217, 0.16203255260188631, 0.16067882001723255], [-0.011875352273771511, -0.02764249136811175, -0.15910961595251877, 0.08929964721155978, -0.12916039614143085, -0.1486101934407382, 0.05264037603095845, -0.05511161247164461, -0.1708735038349344, 0.19227737289139848, 0.22221350545473872, -0.2034916545177997, -0.3015891178873131, -0.09874277048926036, 0.18123368909554463, 0.2076086352154565, -0.2217280593992689, 0.16989634683893579, -0.2352645746972712, -0.06743408487869212, 0.30457428228704186, -0.1883070948702471, -0.2099592054260265, -0.04784295476577974, 0.07328170672428946, 0.26533937763389687, 0.2944412357662154, -0.26386146775771835, -0.2217432588920072, 0.17827575324918563, -0.14062810567923892, 0.23475481465611248], [0.10009173299625572, -0.23571607639251912, 0.2035748968856225, -0.1995730145425165, -0.04816291664710195, 0.029237024138379863, 0.0005139833285343707, 0.11420923145408755, 0.09286538003126107, 0.2981291138782977, 0.30816149101624746, 0.010079284482085227, -0.24787719543412112, 0.14581088334073095, 0.2889245118699234, -0.10813011897326905, -0.023917464898445432, -0.044024990656696655, -0.274424606713265, 0.1039970542633887, -0.0899830099053833, 0.1758121308708045, 0.20700004133400704, 0.19637493321267177, -0.05103144575659674, -0.10933028355112999, 0.14880181520369332, 0.183570036614142, -0.0044320719559581825, 0.24539430354571687, -0.21761240919124267, 0.23166245546621206], [-0.24734073423299222, -0.21764645412444503, 0.019525269014256448, -0.2710368526600054, -0.2815073362355214, -0.32357692704862184, -0.03813317965016782, 0.16935237877079193, -0.26951478114304356, 0.07246002772801396, 0.2215836997842162, -0.20330712900530595, -0.21607212961144784, 0.25677525037275306, 0.17984460606884367, 0.026033292387477352, 0.18867849931484945, -0.21705472119781555, -0.06367411683566851, 0.13620666228070108, -0.1585076163678283, 0.15119444426053041, 0.04040262871513816, 0.14454913726617818, -0.021583774485379834, -0.08383078505878841, -0.18129826872805493, -0.1818494343491542, 0.14994772203027243, -0.21817653654406577, -0.2570111127837033, -0.20715680801920278], [-0.19880884753809858, 0.21007141425607984, -0.062222983660031074, 0.27639315003675247, -0.22843796943503372, 0.0699539914683805, -0.03139663655449387, -0.0641697721278096, 0.23062104014722723, 0.27346020066844606, 0.25237230963982177, -0.1884265826411976, -0.17096052237550413, 0.14574168148948097, -0.15149215563065332, 0.16196129633142597, 0.037391954337393465, 0.054029108013907805, 0.20465664086882251, 0.11436766583186589, -0.29489589658941784, -0.27420030000214235, 0.09791268492337427, -0.011268641844884231, -0.1468563067248388, -0.05190642336753419, 0.14253334485163166, 0.19795679007857298, 0.03922577161652401, -0.04177171960103772, -0.13564190039676652, 0.01707359000942186]], "b2": [-9.034780004008584e-05, -0.024983544046850766, -0.006785486948010496, 0.010695728288260927, -0.056304891929829404, -0.06104365142933147, 0.007444444908588581, 0.0018860600994882752, 0.08056140383288253, -0.06684777639112574, 0.09131789207828618, 0.0, 0.0021249634863034416, 0.1330967531916315, -0.07220074120684465, -0.00226502521340726, -0.027151477885742837, 0.14120132580764153, 0.0028913187286850744, -0.026941246450584325, -0.026251094291608632, -0.028357204687604082, 0.15386415761784433, -0.04022425139336561, 0.00036528221924331494, -0.005692615376595751, -0.026337604921214668, -0.011746802357819233, -0.021302343624238503, 0.07965616154798776, -0.011411918657543414, -0.05897241015855078], "W3": [[-0.15125550794166367, 0.052333460253151554, 0.14423606633185593, -0.35429484067777506], [-0.3994057874903286, -0.22744865052169086, 0.3366162961818965, 0.11944590799742605], [-0.2666967305556147, 0.3186851118015339, -0.024400341806992375, -0.019520998927861688], [0.37906945538033515, -0.3495558798123711, -0.1906284913574068, 0.07003199373047109], [-0.2280987626448087, 0.1482603068195778, -0.21543202968326824, -0.32728696299478005], [-0.23700196998761633, -0.059866338920245406, -0.2508188968583722, -0.29827271263571786], [0.2950391811350379, -0.14664506918785664, -0.11366752080989541, -0.36312019007963536], [-0.11585552829138741, -0.1917452930856892, 0.09201994500755734, -0.24054781465861508], [0.42853754228270785, 0.3916990184349064, -0.13941660326205213, -0.3205541438727097], [-0.3071454210626542, 0.1001707379477532, -0.30075224313527804, 0.28771895776944933], [0.24685373168613073, 0.28614990072842494, 0.11072194555560572, 0.40553524503010574], [-0.372179469947825, -0.08061681915981506, -0.14375510783916634, 0.36631751574748594], [0.0640722124061631, 0.2500038763965776, -0.26916528825053476, 0.39080314200997757], [0.08234251761194673, 0.02785305342747618, 0.4728335831783443, -0.09738161928152411], [-0.025760348784781992, 0.07808575936449161, -0.24352977380054588, -0.14608297431354633], [-0.20355094363739334, -0.30559591505542355, 0.3536230171266783, 0.07293859171337086], [-0.04342504369689824, -0.044876621507046015, 0.07182461294086288, 0.1087158519744782], [0.4363480977023603, 0.3759032495840062, -0.004195260314522249, -0.13940661797443066], [-0.011472101212130412, 0.07462247523860803, 0.06350819262813924, 0.12962161632595437], [0.06238201268670768, -0.13635476310899083, -0.09019790924616988, -0.09912857385744578], [-0.3272901780849986, -0.2712682303604616, 0.18316588604509654, -0.0905521558558629], [-0.16882112807479158, 0.062489036311970864, 0.22599656666994924, -0.19806381175452906], [0.3315575932403646, 0.369319166492577, 0.14205009964532717, 0.13794518592236815], [-0.3604826694823226, 0.3653384756307707, -0.08015395697766273, 0.346113227699237], [0.06475120566827024, -0.40447705700029307, -0.3767637542304968, 0.1473113379645551], [0.055996567659737775, -0.3843381782285838, 0.19981082075623224, 0.28752546370662846], [-0.000900181048591792, -0.025560183075255632, -0.3989581137715547, 0.23404851017493944], [-0.12673539205981724, 0.31634359998598, -0.08691934296046487, 0.0531358915238912], [-0.16472733529423708, -0.2738632597698142, 0.2333212784562113, -0.002783862364611811], [0.047839232761711974, 0.37605072753622226, 0.3950866956353916, 0.2903805764038947], [-0.2225660305684706, 0.0778259946888776, 0.31661706981239446, -0.1024997666725681], [-0.25783684766633214, 0.27398308568336605, 0.06775005598515657, 0.05257640335004121]], "b3": [0.3200738821790011, 0.0887064425843568, 0.2939048828740916, 0.0]}, "epsilon": 0.2568246812865366, "total_updates": 0}